2.521748897266820.0086726266744148050.89241047538593330.00070180270778193941.4006492251822151-0.3175881829901614-1.37943869163519440.09268256334985964-0.8540110485982418-0.91347826269064840.1855573512930850.99543922119772021.34280771316449531.5872184616866871-0.7298625070147887-0.5188174574589249-0.54571531526819410.80818275246499420.7640168773110670.87619425574026811.82654540884685982.3207158568865385-0.42387782170565613-0.5989719077343978-0.1225001424664365-0.9531949780197677-0.63801673569865311.05685984538573430.077721962431328650.74484230065862710.4249936334671656-0.8780792555476028-1.3813545414039956
-0.07617265758339295-0.313288316104870.34080024991433266-1.89189833085483961.55142459921394220.35968984528967957-1.3628401227908450.50445299971652440.5140930684210807-0.82979562298183920.519548761111353-0.23741147108392460.0006328612162526253-0.39483282294498690.8295784056248483-0.8397710919415843-1.34945010796339031.0804073837489414-0.80658077041738630.6077120868404137-0.18426153533037680.5132347419142846-0.88420099065592382.944788001928734-0.16715997189044881.48053963674361990.12489584846921874-0.43607228064644804-0.087371186765206670.4326145479374006-0.73306274351827171.39956087446372731.226724211498546
-0.4987443651087190.9283960440570720.275178546271304451.08001072184465130.5856332418068526-1.1191732094479680.5189951083948477-0.37355513039629507-0.15269784751989077-0.007189879537152128-0.7654854125070506-2.1151079602636416-0.80265508141566160.40214211923323761.53485527756460520.68876707714118821.73483740925869310.8228769182867866-0.330291912458700041.69646597720740020.13801189851485327-0.065779239609749530.3940604841955029-0.3111560783067282-0.4359491435865430.207987596228883160.497151263190298730.8127530914528971.6860144060783540.8134982180302915-0.428361051115832170.135212194104668170.8911026330349522
0.0555908216568719-0.518266643440340.81930532395586990.6604647554798135-1.32801016634802460.112153544270818820.5360655943026610.89647541758108940.0070766119881134980.198530457803731460.8942390219472377-0.454058543240274450.82239859996067442.108694671393501-0.8397638340380577-1.92430244640165720.5157019148308817-0.057199486788301680.37873084417331765-0.83406832475648470.9412543758569650.73138427732790590.5068259588918443-1.1714328802476008-1.619412479233603-0.65593634519301951.89380658696856141.80616718780846660.6946868090832332-1.06675928390066121.1255377449513648-0.14159311759273740.47347929204770706
-1.5363008800765640.83984128428525040.8393891881710805-1.07726662495289620.10736745685168668-0.368247671408748870.34555657114412990.3338879598833682-0.94639843358436470.449750780542341.16865845150290410.036903930838396694-0.09161266260316680.5915614812346713-2.44580392000118430.054549186745320284-2.3284020518584230.72507195197816110.95320244004525890.152206614794894860.28465670363728285-1.02130047658364750.6980109858030875-0.231442040154763720.44866166146364610.079376839107214881.9444497805176522-0.007538213901671168-1.4843871500591859-0.79545516916675521.16405323339583130.961115843691854-1.4707626864088235
-0.5947511432099646-1.7280638103572754-0.4640524157599946-0.68364578224637662.3899163330760764-0.25321826105300643-0.6932844761077586-0.24384294515312152-0.55340350442646751.0066764154524939-2.291104026188003-1.6284104242098956-0.084618257337076220.176662460932866331.09318209475580970.9793538843864853-0.362672681451690850.11932026717686328-0.77341798908300230.64093788161174172.1328395084272094-0.15798222892921346-0.71667507114252790.21138542328362955-0.03848530398597148-0.32656213014176080.78085941282988670.95085660706367450.02304698880849564-0.08943198183897826-0.7354583055717314-1.6619921848481833-0.13049782153086323
0.01581920225220633-0.13537037283897857-0.9414766525359715-0.03653591761907098-0.944771833637085-1.3580025283080674-0.53436206685718630.318158674194016831.1358561545319823-0.0357432562899693762.238150053201234-0.47178431201867962.22113438564202340.44642442944188987-1.2044670019053358-0.71636701934175420.5823837382392694-0.49920103532539406-0.021716049453010190.114453531183803330.292427315583415170.66732176585358170.30319471340810933-0.92193493681584140.7452408832827275-0.5141900239234224-0.238930008431956860.088171252156397570.74168115858097250.04073530274950541-0.12542053547588297-0.07647305287825974-0.7266133363897428
1.4793356285947343-0.4183547290519795-0.7019859626417789-1.6377283338872333-1.8109801140643422.07319089350759840.21102383206698808-1.1865312249145654-1.2774763830805587-0.9009840777539190.64235160330458740.066275458185952280.33809148559522230.291663504857493370.6590553295142951-0.409344045439808350.089626700345852030.14722499381773807-0.6437919918862878-1.5896907646177159-1.3229209159386581-0.4786472690668354-0.8292051750322542-0.66245197154037791.2558130636054290.4702901008673266-0.55854531896454821.0554962070930274-1.00264962079017760.297107876912614870.0513303868953473851.3407331024739564-0.6514759004607542
0.30865649172047580.67598041121182411.6036178575005204-0.231181319278273230.56914403736222291.25056723682697330.463916277384359030.9557185850176576-0.379025163611840131.1291418624182008-1.7021543004488298-1.14192068333528771.5592959249442651.255543530512705-0.225965295682803071.12179241975942821.4011873831226302-1.75299121420048290.60330758590226970.27119253086877365-0.6295585993452003-0.97296130318518670.344090741124918331.41280006763628730.55314998137498821.0320055948634699-1.145087632932274-0.57946089411898880.2944379886365642-0.95524932115119010.20173257657209073-0.22607070833636003-1.5689812207379017
0.131641695784339540.481225104290981641.5172610385940237-1.39999051866422-0.39013573868654660.41850812641956825-2.3284621297725220.41718972587869907-1.0194737292383742-0.49119182568344590.61160135340032160.1224666814359960.59921585588169270.627091057910189-0.83627485330192830.25605844410519620.35441881803601161.36379979205871020.8523241718264687-0.00067226883415965950.5930605210588982-0.43928624633112540.6985606481560656-0.27109273766835834-0.7954356268173302-1.1385613031714399-0.7364699930036952.2865318832574255-0.64941673710405251.0484802322910516-0.8146320401635112-0.56017882910366880.9669679150691003
1.095801920912165-2.5750321656909656-0.9873257751143143-1.415599117476205-0.52566087304066370.00138122662254347160.94042146279664241.98123819155035320.5779418638149858-2.08413272545588861.5588449306950403-0.76934802159799340.020305096280359490.498975004324784250.91737578280604670.42767806262899527-1.3647274974760921-0.5539002643945373-0.19938899480805160.9611115941598355-0.8233538229309116-0.2585341001761551.6988288442788344-1.57612362012908820.034496236550989440.6853963091882063-0.9414353192822124-0.55002709887783131.2256065159298262-2.04562748210770140.059639470159981030.31557588813334586-0.6644878304193635
0.0424653760799002041.2393892166739666-0.7327696298227067-0.100945549684163251.5832525662971442-0.82100524653210260.44533675926337485-0.82028428680689680.7110417779922534-0.498276340988308750.094576337692737570.299885095659703840.1198249327795646-0.03480271336316771-0.4905086790168091-0.1641748754081745-0.385381994944966061.16403798397728431.2388303859579812-0.9204451265901612-0.2220644977698247-0.5897246088379118-0.8395700882157643-1.4496295571770954-0.818279544443519-1.4254675816854359-1.46783474045416160.2538104099568784-1.4329662324977497-2.00474548239843481.5955344741401980.1761178641063021-1.009532798901168
-0.44798704054613680.079484501119900370.45597537251505427-1.89821637431519471.34405581914060020.9011354581021872-0.82352879587217231.33086296347605430.264689193889989071.2474812841493688-0.34426258892171985-0.297520428856578641.0904922603888192-0.19269068332369990.10880347149945778-0.0939589819826907-0.39966233327495870.6280791879323591-0.24146351631773436-0.295175744961887530.23321810948172310.7408861373418363-0.31311330427017770.52685604393611870.7428282912559522-0.24723193974761637-0.222587423758224050.474280183813382660.6161620602668596-0.31277585686000241.6761887365785142-1.413658437530429-0.19187187375877504
0.79221527721648110.09103266218874377-0.278352986674318241.10923840420868180.57030386998309110.153211694569340580.52586291027237160.90234549913288530.6137242036769105-0.07726274759783677-0.281028299513779671.880240986755371.2795835380387897-0.6506356826677213-0.10066743689716243-0.9683326802377663-1.04711941809090581.43783999267771260.2681785468821695-0.4809897614459263-1.7557074515254790.20601846410443492-2.17646454572618441.01485132341967030.97871301376605920.089103719952453020.5220148471099901-0.22962119989683605-1.5930887015192985-0.31073147187474526-0.9020288226898403-0.86856290719108020.5287475445780847
-0.6114833890947688-0.7831667283266273-2.43827520538050461.2688085915733125-0.26878162954546136-0.3546961654251017-0.02669259755396572-0.125518243261035560.270105697508127350.30938208705830716-0.13949497241763953-1.56736453406540540.304365678362524760.7398502144995830.6791997349147025-0.90955695233275740.7077900194054846-0.310244154106017470.5513418452136224-0.20063304039725374-2.0668371862187858-0.987379455022813-1.6747545987331394-1.69614977395140660.6617636990048184-0.3766419137275512-0.050700246909566420.6036699786086839-0.7822462118865596-0.70908668766819440.61595931109478630.38996885849384570.057735135846852095
-0.340110418164083-0.12687629265700415-0.14111219259571148-0.69357037671269130.9823407368168213-1.0741735336727514-1.67395658160364240.30376417163702630.36992805069162150.043868620902876170.72140764758563750.9506633488744773-0.8228361036873522-0.6521471746784541-0.21589803861910842-0.15454627299651627-0.0069950899645963922.4218875801825077-1.02872950783986531.2731295406951275-1.0598555491194308-1.481013211128123-0.88395752339433280.6769142848439862-0.493466574304108731.67997819279815790.04625061942816115-0.282168466331221-1.2257647015426234-1.53867744083095340.20769550887019106-1.27242815061097381.1847313336564749
-1.4631000292615939-1.1315831107208780.154114664446206920.40684490568646891.5193757314392284-0.7194844782743732-0.64480756862383060.16664163144348737-1.1864795828653887-1.65512608297478940.150030218835093960.23767775657344326-0.11040029495366292-0.1677516519397675-0.94975210323161850.282092237442305940.19841428221694263-0.41892941164344650.082256870104565240.277740173545556130.095723752624077950.71127668567861061.53219499293017440.09177162612852403-0.307578322089297751.34580959622197270.05116170975682080.67411605384036680.4485614294502032-0.7296706162661184-0.84288128961516060.8829439731766777-1.1999510560013782
0.122410547809868640.51488880254560270.55494586280055120.6349395214703360.77828870896250530.065835018307102310.7579567817919082-1.0453113804561174-0.8252419081263290.09806669275133506-0.6664020974527552-0.7113253062880120.4405978114746543-1.1652038241810440.9924832914177864-0.295812871571729-0.179522376908306771.5959446130959918-0.10260041281018248-0.8012394839119791-0.08867551321658798-1.3381228463074970.70229170013297860.4995354192717229-1.5845638294497710.440626604611798762.40423771089632-0.964629125594093-0.5822001742061631-0.09406475447693913-0.3708324905652472-1.0314231099962372-1.866609905319245
-0.7885803478856739-0.09554859873581-0.86373228735198140.27527275637792564-0.08688766452946563-0.7157406805125124-0.509457465097117-0.461326295734063-1.22897226352421481.1494342679069571-2.4002961511051932-1.24480763233617920.5275144218004029-0.55250331124468630.5423585993296866-0.22347894590573411.20744583514697570.43852254801456910.19475679213472891.13772935539516680.50293406563702150.4462168584016798-0.213804313754719870.49808454421867460.8816746449084476-0.7410450305247981-0.258801411288543450.15303348737264347-0.4767203653543642-0.80827748217020310.59657119027759931.5382755364266978-0.6216544416451408
0.5235674621156449-0.2601045002293322.1842972949063470.19409769838516863-0.40949461732989273-1.0700100267647012-1.05808544366927260.5033152420489128-0.65955014888613370.12150512510203731-0.88226950467526740.6273410753585097-0.2537405704847309-0.3584141678036413-0.37135361576045445-0.388756901761191540.46987693856890380.81154088389642880.3965365133029090.3988093738479484-0.8937528666077383-0.42103118767096714-0.348080800430957242.0649394421469935-0.07502257948183771-0.64513039479217062.40044264566238841.0380233857503751-0.4920380141160594-1.6928790829935656-1.44280479437741250.317699823802037540.48969330816742523
-0.5292541243346390.78216486289724640.3234312022309571-0.63582912170169171.21851732056405230.37734695754734630.21915692867014622-1.63455216919050450.08084022464549931-0.486889193397621161.02719569391068391.75139412520791480.059638455337984060.6074650523512183-1.1282760526028780.00335404567446325561.1104047749684016-0.80349445976449650.0779665399362616-0.35179971640702960.9576442922783537-1.294952467900176-0.32160082704801124-0.9000483988819442-1.53555425900535370.15101275022726390.5774277486047451-2.299313049433660.0588877685565949-1.2843957195195712-0.5830460344752350.533396017060106-0.04165610650258543
1.6882779020659915-1.52078016837267831.9901299613351136-0.178919967905714161.197283596341120.313333379719568150.055790559768193391.3734738163366510.879168084724616-0.19274054238705152-0.3279506312256583-0.49854343517875993-1.877193381636753-1.29798790887413530.7511430714856279-1.9891021571262575-0.8542324971609369-0.466387352048460550.0053134040320717831.1212721074868197-0.63796359453833770.58794570691288230.23403615112423612-2.179326007425510.63968100770809750.7531511799502113-0.7230697524901570.31730387206620770.92597885098575360.049182857789199425-1.0038949653973368-0.37058015244352791.0758279164227669
-0.33710401834549090.428871857408838650.3482214783839310.4277768079723643-0.75135144817524080.84248203883993310.68184860131230711.0409331505366735-0.0342575831978156260.99793046384839890.177417017369624540.9236902035811356-1.85108722465671161.58109673001365030.164940712352681820.182677895827596051.04132912339425450.3773282578828331-2.74129089835165770.32187491163743637-1.177744858871662-0.5181917032472054-1.2248211634531243-0.26595687929066963-0.09289946146694374-2.0635976452757654-0.8837514782573886-0.078076319262799261.4880116783569970.4033567795006830.43007878266407611.22458425587181-0.09637522799769818
0.6997150966772291-1.26100491245266850.65795488244004791.0113590741244658-2.02528001157827-1.05373731416807530.202587970018317770.055131579205434315-0.63270217570246860.2157222622476891-0.07710399244049845-0.85568289958787340.97060031027522422.0491852864115430.87070839310767090.414269036498709330.42152681790626011.0163095427245037-0.0240663984667818380.98265278131414180.79243786014317750.28409956268463870.7668460065939993-0.56054389327904390.0243860727631611-1.002894319846427-0.47190777040329471.7206199042594051.7586760042184133-1.5079143695510364-1.8304498123912020.45645646925573186-0.9526751591498342
0.8405686994552467-0.44176950436103050.054222353399820910.162728180215253120.055963465128843724-0.91006159760483311.6885611570880155-1.16086507869720211.8212353612425483-0.243101440491185370.5786710700016519-0.37487600492364131.3268089999090094-0.81088731942142060.3254788687572978-0.141437796145380381.09981747370580620.37105453678374040.42839435345729670.63609381054827860.190519347946726620.6965538529650426-0.9393252109949034-0.4522678263466717-1.20654383520972690.6607812702472577-0.154968381300414460.6502036657539350.91923394167543091.77093992368189571.59586064443139630.86594035303655370.7109522937458919
-0.029179017672301296-0.138011926414886742.6249864712997155-0.7812570307040061-0.56503757782988380.4107158837905903-0.291727435895356270.18782128728675693-0.3601611575295412-1.05764042944680470.4079611837974347-0.25929156379983237-0.5806444638427604-0.152192321923745681.9318540854439388-0.07583363773979429-1.53867230399907660.7682373972569008-0.5131135731695803-0.447645206583098371.5605702296474304-0.19483644271934825-0.3797184713719073-0.7558909571936382-0.10913453049001164-1.073554873119696-0.245761013658775950.1361037844334825-1.305403320573625-1.5655288969009384-0.5880960981180511-0.19710550844823352-0.16779094815906595
-0.965517420280259-1.6338402980666205-0.3349759913891992-0.516294333431637-0.04112293235407838-1.074393818380462-1.3672539854831682-0.8107704909425990.4761450064390413-0.5358911545260933-0.8969416096353037-1.15358507070460181.82499525228331330.49889269747447611.3668418698059297-2.1922060984891005-0.454795634173079670.4587662222950781-0.52195766052034860.15171737237748551.04704435511819871.9893535093801689-0.70525111480740811.52016443412332-0.07222956007025705-0.1527930349412034-1.1895687606649727-0.56853494575171710.48245873390664684-0.73048157448718961.99120361396088460.249946283860268-1.2186731544922271
-1.5703713472815983-0.449039037666444540.69208167079936590.30786779618857310.7862623955510729-0.5874756529421167-0.32511313040803530.5892484924459257-1.6746757529897751-0.16246748991445730.035169263718198021.59376039864600650.667749018449822-0.96159191484813060.443070275078329-1.0858348796157820.6929509750981392-1.40083465633698070.17429075840579397-0.1728843455282342-1.7815569609363262-1.30032890266277980.04418281920908027-1.33560711160634821.2629481836564265-0.2778041480540277-1.5052123514109015-1.5111929138490148-0.9256008801754836-0.30221583606972982.08175774382596670.119373777669232850.1734791457491842
-0.5210168913258738-1.873101818032963-1.595748987906827-0.5805625771718115-0.31439650646557993-0.231395555496232920.237106057276098961.1331758810045316-0.10617386978278694-0.2711775348580286-3.27056456517374360.1116267338112059-0.05806134313858312-2.2860988445633197-0.4715056676938151.2462778296138401-2.21395315092661-1.2044784270168603-0.3613621961904311-0.5023155133313031-0.5443990253766552-1.0020055036063833-0.7706619646038937-1.119256345041579-0.97266908168973790.8776628048162501-0.368680578886389441.87016058128294920.7745950931485636-1.55306990588850341.3679767359504413-1.51341866276267310.274840578756024
0.17663012152504243-0.235419894761075720.484454442742582260.0014874051062645094-0.5746434868211187-0.48128069717012820.4858142651566865-0.20768430912466265-1.1633071504334946-0.5709636185551671-1.52482499305002061.26389903436874170.0390422683634667551.0490919201352626-1.04232970410256230.7045558825238648-0.114477168713136041.4279862850426628-1.2370487770513134-0.381074265817324230.06601736015791698-0.61294170491225110.2803029004674042-0.83012553932656260.55026433878561480.33298553391904007-1.2521466896929168-1.13440567814069081.050167313065917-0.58843282738073931.57331708048124750.04791935225037664-0.09221505231534899
-0.7371832328233748-0.2409654238407284-0.073244415045700590.25913072945824317-0.796252634235588-1.4893082500947281-2.0739279944450937-1.05449358475452740.222779880715193560.170529685316003240.642541884078515-0.03502933105084977-0.244278243984106640.19859581190007056-0.209981592614410850.13732618857876705-0.174353707766810172.0492949284757964-0.16042226964050108-0.859332908356186-0.9746662346940481-0.5933150146265218-0.86797838658330511.25871190695334741.049809796558479-1.7277380963297593-0.34690957992749677-0.683326339787701-1.5329963150463553-1.2806908298063944-0.7291150023951322-0.10100563875023395-0.9061712523662302
0.457036151099849351.23624334857246840.168288151824025480.424976288261885161.29106913403711920.225592638186984720.5736925216312247-0.95456356120188631.0444523438481514-2.6744278624039928-1.5230176838413071.142609865431389-1.1738744073728928-0.5857356240502914-0.3872274644269610.85989196268458372.11326201868811920.8247813016029216-1.8014480492281015-0.39078957236389511.57196444577244421.17709924354391-1.7565054833901035-2.0303183264802270.27344249596603281.46961225104164740.8005589708735942-0.9196876795394007-0.3034508801819969-1.2812664173685233-1.2003669609108814-0.3021463630008445-0.6304943304435248
0.1743087769092104-0.64114569441256111.6492267925517170.59778218715983440.13926491707452845-0.493865720566079250.76543671477935621.846715748686863-1.88487419573488960.50319810169191250.5256784205430597-0.6198923898551235-0.6334616968665233-0.04675192368425091-0.55120014749247610.7425207104859508-0.45123555192112762.232058886710423-0.5261997988662629-0.0184623733482026240.41073758085678640.14161723338029872-0.47174590821494590.4599203543306426-0.81142537441005360.195812404954243961.60205154742107-0.461167831259893141.5313274920343662-1.54672437475601951.41731759706009461.2555615235930350.7011121120647074
-1.67223217600969852.19667616879972361.6626256973553208-1.1412990565620578-0.8358884886164543-1.1611450423974840.46948243288885330.40051365092304262.2087258900298540.5378594241262298-1.1547477804822217-0.62513433916901110.6844498872474922-0.088868076790777481.3082265225867675-0.489936836016594770.44549154899101920.2198989572156949-0.239996338842832250.079629291587301750.87898649494485790.274490013794334240.920028226485209-0.56838391162217961.15858372425419341.3399777333105558-1.1292264218509056-0.49477247403833810.126634464664521131.07445545385030840.370125060455625040.11959312313855311.1112533073149335
-0.3369848156526724-0.055317841267954720.64095490951104640.04705383998519483-1.49028087940570830.8399073494818922-0.400973462191038970.0061472907644652380.6015475210404001-1.49335783299925070.46329793453644370.8732892799933721.1219370541610674-0.361125563150946570.5113244072246446-0.35231438348809251.23502938081455650.2185022290303158-0.6164462145259686-0.4941536004265857-2.08831509185884560.20565225165148718-2.1891050254091278-0.89005551369759311.2077917032209036-1.2565998143172445-0.001574339152309656-0.497368216733816870.474152822797749-0.202417573038434720.305890038974066860.014586878183954531-0.984814542362616
-0.18698969154258904-0.7731803836708878-0.6935082501937881-0.9078075864805031-1.054570764332013-0.34308101637960161.7762615010498075-1.0011237536909747-1.2602537107198155-0.064874898087088390.094162692886350041.46746304718408660.101038214607106-1.6503588723239826-0.276147470512545350.34346249918955441.81324441432457430.5293780437640948-0.32665468055799480.5151810209763817-0.5676746626015127-0.238550431861033420.3525332066246469-0.5187395035058392.1957895747932660.053818769674578056-0.64286105845600220.3708764044784918-1.298162653720491-1.72326461989285450.13449257671904244-0.453940733831036560.24017520890387853
-2.2243955592481623-0.48262015546061865-0.97516922804412812.3189936593836291.30306762283445950.5228442585378748-0.0211909859735778041.34907352892454281.1201268894858678-0.60922287109125650.98550833923787570.084049277903773331.33751113293875-0.116534138123824750.004914027061903605-1.19967730600058190.0042037124414310312.1386940753587821.06716731744383540.7216347179041075-0.43718600132980057-1.06940492135593870.74864395311555880.59330547939011760.30630350873096050.06611638412881995-0.233908580491812460.31658674041623364-1.04377708353668970.26333523902107330.4216034956094698-1.29036145111524550.17923632386088406
-0.3512566741600965-0.118617704673279830.50010799141624910.04908236955934175-1.0980501678180095-0.52891399271524360.8087141410314502-0.86094666754443030.5024416077231032-1.7202340876503952-0.024611817550485884-1.5971069072800923-0.8310572870451589-0.07629523797449149-0.5300526129054703-0.52274138896368531.4768933683295873-0.484899805968396550.49689412634079916-0.40458915212779360.069581288751119730.78081732621406560.2779306583638116-0.86709223172243830.96256470911744811.16147331967125830.97727995369591520.76518563874814080.0126265176041273110.9800623397152151-0.07355840770754231-0.5808455574901065-0.12867507596700012
2.21794142351256471.23189750216528722.4110307225883681.04245026117420260.3736381869272330.49501273542854772.1674118590465871.14153867009973920.9829593840170343-1.11152192636727420.12926591775489568-0.4875333925389076-1.4306575981448780.103798957258573220.6243680969583624-1.982259621530481-1.500219525210074-1.2213674831822774-1.06617575657864430.431156723489994231.37137794580535791.84476529688591670.285039617931154950.171073967771515961.0051896015352210.578852699617325-1.2910080184275463-0.3014965419760116-0.30270251301448886-1.893917410394527-0.32668594590908523-0.206117954497624742.02714081754888
0.3714085480836968-1.5877252471376935-0.5613468109095536-0.33002707561728234-0.892449969111091.4752420079370445-0.118256292310036230.973632969791052-0.291486688036004140.075447082232528740.054886264913519854-1.25089432579337910.42909144829609271.7033558615320914-1.7643289609802224-1.4952297401624548-0.42346374547758103-0.69076509682576780.17523275677609398-0.24603306585200421.1937267162280951.53545985230702730.36803521900110211.69818796581810270.65970014735674640.66520939570221491.11230733596099850.35766054364177596-0.434235982712405772.2155937877387286-0.54114915818167140.44734412914820380.43730598444275076
-0.21678739278161052.10334602037425930.31907342472847920.8374172731216833-2.03053019911615531.0755671392159491.7205769030493185-0.83983862424190690.0163995844733837121.95414811329311290.28066696020559791.9855180866367340.18627107456662950.5277756018506610.9519621089567815-0.20930844800557533-0.84459704421378960.3566764936276804-1.2353049450586138-0.8163814283437981-1.5584518776650547-0.16310047308475634-0.91429994183455881.8505859024051174-1.0549559184503903-0.9504585332073-0.9508177621464041.6547307867471226-0.5144539877659607-1.0608397201081860.52381161254407070.87499316684690190.4426820798555254
-0.6197029804484668-1.4883779796066690.3494110255621318-2.151453525916141-1.1225042889543895-1.5358341814341268-0.6947244889290379-0.18977546303392442-1.53971127868685192.1256428951695017-1.09657550889610330.54448600072671670.32376451466359341.07451778513089050.18622521063919004-1.3848758919170359-0.61412457128324290.48910010665533304-0.5731231915447169-0.9050433064676889-0.57745910997005651.16206345594876060.5772946140624807-0.0221713603354641540.88956112787915640.4716944295413063-0.71138305456178950.81693980550937010.192224794944207520.197879765611870820.90847966107773560.62252057965043-1.0941398373550493
0.025006857076282131.1386958845825017-0.84717162944939841.0244503876784934-0.11287735639282692-0.49200743591693596-0.57995648511609781.03538232676277490.202164530170733961.746980760752451-0.241548637921746580.060288742289114840.84043953535165470.9801380908499339-0.235922571574796490.24472539073477131-0.6352762512211252-2.3718735068819528-0.071816501644986221.4272746184602356-1.287845121650272-2.426038030494160.061363194046373471.1038391368912368-0.105534989633572860.071037392987235660.28409689039519191.25652508605974571.110898809433958-0.05632864889413114-0.28372117483507214-0.4242937710483893-2.0581363540700672
1.2932991949555808-1.54578206752603360.197950153763467780.70500354333995160.05062591276397985-1.6234207910927662.6977330618193203-1.52131370995896060.424491627838353370.53949413361420741.11344997297020850.5233287378539451-0.220479779779886950.54267566987296010.8273737241697251-0.4322887919608199-1.16742661260352950.80616246118761430.9263086533712068-0.59766809188935821.14389014721411320.12908854996276410.7180581040127371.17587979792399062.0515684867597033-0.098440629176956240.040031793283908951.7238024235126295-0.13061627782791677-1.87431952242976020.67250474319856360.98251615277192920.2009657687624476
-0.27582887565687031.36364815899879740.152438621980316550.81731758735854510.4813295685349961-0.81216578141737570.43101153559446040.9928133588762447-1.26467592561964031.3449164576892690.6377408218809130.55300318283919470.5031479384767787-0.79296429332064390.235384518118803730.09518403975710672-0.082582055874913490.8224453166380354-0.9678649173820631.033502903538063-0.457119679167822760.2678626911111945-2.0177616206433110.4432915494661203-0.5048596865594435-0.043463944932317936-0.03397260603121964-1.0750876322041456-0.9753454939621536-0.80255928810702411.9670205274561807-1.15792980809036480.7254030722409627
-1.4480282270658977-1.32258872628714991.21067723035835821.3965710996099845-0.17621374795187640.433803651136210561.3835554216108479-1.3089974694104733-0.165089044483866771.4983737092655083-0.133219623281099930.9477178755561931-1.11699452329147641.6470164558543166-0.3832294653738131-0.13702923110209351.695914984434947-0.84760514665945430.6839016975738337-0.76184089088653520.240643691611016340.7756137744082997-0.7698035940769086-1.86076401771067881.2597631729964691-1.2849625404957672-0.143537213353251840.311134944069984650.72320173121848990.5532842038071680.137985184949343060.09809090613213918-0.08388891529107582
-1.9500774842791753-1.6287667071841414-2.5004516154093186-1.52075577440982011.4916963596113801-0.088201270297188180.36315524134765964-0.5262146755487996-0.946338090330908-0.17369119089700316-0.62624001219743520.8000585129754718-0.36701116404317170.7554892079477877-0.17686116045358044-0.7287131938575770.187564637791552161.90333467511358961.2311317184996458-1.6404539163701715-0.41994736964270711.3596867667816492-0.39125350251562313-1.8233221046501821.7544714017713257-0.9105559522106357-0.036646246067332286-0.2750054294644414-0.5239542567489329-0.74887029061509180.321928339607442-1.7752472508810309-0.3426758290867906
0.324017243741351271.79924235094275-0.157385857385363651.075747804010361.6848752671149685-0.13773417925680750.19039377091690715-1.73732093633249640.14375636632804403-0.09891023334747695-1.0758562809093690.77564195621311080.07839637406086981-1.04196674636181561.403587616637125-0.9475323679027172-1.703856052065541-1.14603870414508371.58661327974716261.7650561570416956-0.1480920647992414-0.73582499956748770.73575458094265990.6602081856630363-0.481722024365330850.48989644442598750.66423156833577170.5591479382425075-0.5761381967202442-0.0913616332278044-0.092183764796144110.27438745424754850.7409123791552724
-2.1518664760380651.99739645780187441.26903414725647771.4451839747137205-0.262720483781899660.6587697778050411.08762973285983852.5970499446911783-2.3780191421880734-0.0777662064493401-0.9166549926400921-0.29582683162103870.37068127846424421.7718179872711860.014184114180356314-0.59245845363779811.69194259947024172.384163453296259-1.9229834364264595-1.940672477773492-0.481929948740256350.018477670715965210.39119299511185081.433110039517609-0.73984935874744930.5791974064649936-1.74921829484854770.4437935687924608-1.46053410024355410.90809528178445130.1794474057685142-0.305999274063577740.4405933900437114
0.314134113335799660.4300509657790917-0.1830863579397689
0.4391336004150349-0.7741767083477871-0.8327512904870429
-0.527466031419225-2.51444580175403140.25066023347735156
-0.89128054882816020.052067999125250490.6443614580229211
-0.411658300918324-0.999856754378546-0.10180181876964073
0.6961698740170511-0.3244688554454545-1.2844634876237488
1.05538814449889280.81081120725136990.17260675361790861
-1.1289677763658514-0.4552924746678649-0.7067357985057212
0.285463708929925950.08503209360763293-0.44659181947088294
-0.15774056970347897-0.310825247293190171.2883595027604893
1.2481235843421947-0.94970513029975710.6047140345343103
0.9924973433265799-0.77840413979446210.1062822421185075
-0.411531157135543950.96883072571065551.6635388144460574
0.03628976349547077-1.56774574532737352.012193928283575
0.16624586124436755-1.13473125664377020.9192959954571501
0.7997765304986753-0.447901414294230470.13190932274454034
0.7012199318102531-1.02541007570817391.0626009056251933
1.5772909891010360.369693606757142631.6115192115050567
-0.458567060393520131.48447660199767120.20872499751923046
-1.196742130807408-1.1615733707282696-1.7096531129937835
1.1275580651635760.40987403175148995-2.384255524338645
1.0255227061727865-1.09458387804875650.91276892998278
-0.6227100434253158-0.95669432390028460.010328208843087928
0.133788182474648050.02198396476924651-1.0213247660627893
-1.08869937302766950.5010951138172541-0.5730872964879539
0.8126390494509479-0.53724704308946460.5883505842789573
-0.9294972962657011-1.2575988231138988-0.5237944131402976
0.6927474373944189-0.5273970393329425-2.599829007076685e-05
0.6080504479858706-2.05163379821031370.04866665713937587
-1.2856476598132793-2.1600239070965921.1623624586489703
1.031588973892886-0.13757297186791273-1.6581040360881316
-0.24648196903002773-0.7863233551878797-0.0733168364212931
-0.342754778571022160.8974410225909616-1.1150952893407928